tree 0.62231 1.1986 -0.014116 0.20125 0.69419 0.12068 -0.90399 -1.4023 0.43357 -0.48537 -0.4645 0.15756 0.54261 -0.32467 -0.025646 0.45742 0.16561 0.18819 0.062099 -0.86418 -1.0425 -0.81157 0.3126 -0.20279 0.55734 -0.28634 -0.14874 1.0098 0.25041 -0.53195 2.3793 -0.76966 -0.63219 0.3203 0.15072 0.23326 -0.26254 -0.29461 0.7671 -0.11577 -0.68129 -0.65413 -0.58914 0.24684 1.5904 0.33025 0.41513 -1.7468 0.82453 -1.0886
mountain 0.44469 1.7411 0.24895 0.30172 -0.60967 -0.64624 -1.2097 -0.16842 0.44635 -1.2397 -0.42442 -0.92472 0.68919 -0.29421 -0.70245 0.65651 1.0121 0.66883 -1.3459 -0.31857 -0.94914 -0.022777 -0.0096754 0.71226 0.36824 -0.7096 -1.2219 0.77468 0.03788 -0.046706 2.3723 -0.80034 -0.76385 0.41145 0.78734 -0.17004 -0.9871 -0.62722 0.28548 0.024311 -0.56093 -0.044454 0.17004 -0.052555 0.32851 -0.4362 1.0471 -1.1037 0.0058918 -0.86151
flower 0.075439 1.2659 -1.3179 0.11341 1.4513 0.17337 -0.56265 -1.0706 0.54898 0.30163 -0.11471 0.38498 0.9205 -0.2491 0.3308 0.060113 -0.0068846 0.086864 -0.20535 -0.86098 0.10007 -0.75486 0.48225 -0.33253 -0.23791 0.17345 0.49777 0.88761 0.089471 -0.56217 1.8535 -0.0055493 0.45845 0.53943 0.3247 0.43479 -0.027253 0.44744 -0.27514 -0.016152 -0.51024 -0.10113 -0.80985 -0.31571 1.5817 0.2105 -0.1844 -1.7266 0.092685 -0.55696
building 0.96946 0.51658 0.40869 -0.44261 0.52557 -0.43554 -0.8864 -0.72144 -0.32513 -0.59368 -0.61602 -0.5777 -0.57443 0.05468 -0.5763 0.48652 0.10411 0.80692 0.071993 -0.25208 1.2826 0.16648 -1.6472 -0.73222 -0.40618 -1.0784 -0.054301 0.42463 0.29449 0.039102 3.3546 -0.95662 0.16766 -0.88352 -0.071421 0.64726 0.67146 0.43414 0.41453 0.43332 -0.38089 -1.0239 0.14656 0.047804 -0.078527 0.53889 -0.80031 -0.73521 -0.028602 -0.29638
car 0.47685 -0.084552 1.4641 0.047017 0.14686 0.5082 -1.2228 -0.22607 0.19306 -0.29756 0.20599 -0.71284 -1.6288 0.17096 0.74797 -0.061943 -0.65766 1.3786 -0.68043 -1.7551 0.58319 0.25157 -1.2114 0.81343 0.094825 -1.6819 -0.64498 0.6322 1.1211 0.16112 2.5379 0.24852 -0.26816 0.32818 1.2916 0.23548 0.61465 -0.1344 -0.13237 0.27398 -0.11821 0.1354 0.074306 -0.61951 0.45472 -0.30318 -0.21883 -0.56054 1.1177 -0.36595
ferrari 0.48574 -0.60597 0.56701 0.99944 -0.032018 0.12972 -0.65557 -0.17728 -0.30628 -0.23143 0.63961 -0.022293 -2.8012 -1.0694 1.2051 -0.81438 -0.25174 0.601 -0.45544 -1.9632 -1.1056 0.035586 -0.86793 0.6842 0.37873 -0.11545 0.10904 -0.25961 -0.63857 0.2418 0.86424 0.18576 -0.70497 0.96731 0.95904 -0.50281 0.14638 1.0155 -0.27045 -0.32398 0.54201 -0.52226 -0.0083821 -0.057554 0.066948 -0.098027 0.59838 -0.03627 1.1187 -0.81392
leaf -0.19212 0.58991 -0.016453 0.55384 0.65911 1.0316 -0.55807 -0.78602 0.59405 -0.73028 0.063776 0.3531 0.7123 -0.38352 -0.14271 -0.077119 -0.37528 0.41887 -0.25573 -1.3098 -0.98415 -1.9577 0.97034 -0.36311 -0.44061 -0.23878 0.43531 1.4808 0.65945 -0.78764 1.7215 -0.43166 0.070071 -0.05738 -0.082677 0.61642 -0.50708 0.12888 0.56509 -0.68641 0.10125 -0.63011 -0.90007 -0.092616 1.1439 0.22071 0.68059 -0.45281 -0.26077 -0.64546
everest 0.6316 1.5832 1.469 -0.87971 -0.56666 -0.94418 -0.60881 -0.24682 0.58957 -0.57431 0.0049973 -0.31554 -0.083753 0.29722 0.18847 0.8274 0.91674 0.30301 -1.5719 0.72342 -0.24201 -0.02044 0.034984 -0.31246 1.6088 -0.55277 -1.1372 -0.4948 -0.53336 0.86879 -0.025014 0.40704 -0.70723 0.37209 0.368 -0.29057 -0.43282 -0.1903 -0.49592 -0.39625 -0.87671 -0.45509 0.28388 -0.076103 0.19697 -1.3744 1.3556 -0.59884 0.16874 -0.94439
rose -0.80901 0.2091 0.85659 0.18123 1.0849 -0.075861 -0.82726 -0.96318 -0.40827 0.45425 0.4642 -0.58634 -0.014735 -1.0625 0.39668 0.19313 -1.2619 -0.35233 -1.019 -0.63384 1.2078 0.18914 0.055527 -1.117 -0.7025 -0.58161 0.064159 -0.030037 -0.1067 0.44689 2.8481 0.12098 1.2057 0.93686 0.48936 -1.5921 -0.87753 -0.32164 1.0237 -0.70042 -0.54317 0.1281 0.54337 -0.86638 0.065663 0.017083 -0.12465 -0.61839 0.14818 -0.032635
red -0.12878 0.8798 -0.60694 0.12934 0.5868 -0.038246 -1.0408 -0.52881 -0.29563 -0.72567 0.21189 0.17112 0.19173 0.36099 0.032672 -0.2743 -0.19291 -0.10909 -1.0057 -0.93901 -1.0207 -0.69995 0.57182 -0.45136 -1.2145 -1.1954 -0.32758 1.4921 0.54574 -1.0008 2.845 0.26479 -0.49938 0.34366 -0.12574 0.5905 -0.037696 -0.47175 0.050825 -0.20362 0.13695 0.26686 -0.19461 -0.75482 1.0303 -0.057467 -0.32327 -0.7712 -0.16764 -0.73835